10 64
3 0.10996368 0.15246378 -0.051076386 0.03494756 0.08198124 -0.17222512 0.22471349 -0.0022811398 -0.10051081 0.09316231 -0.055836555 -0.22465223 -0.09948789 0.073918015 -0.042065077 0.16123502 -0.023341125 -0.05047757 -0.1285489 -0.11819837 -0.14722621 -0.09990231 0.2555327 0.01529017 0.10541621 -0.08581245 -0.03574045 -0.2489185 -0.062968634 -0.044611108 -0.1102625 0.056213543 -0.08889674 -0.11194282 0.03913931 -0.091494724 0.17810646 0.09573989 0.09791318 -0.44316223 -0.12565777 -0.038257346 0.07997516 0.051994007 0.20814857 -0.06059371 -0.04701698 0.062735565 -0.20723869 -0.1271857 0.05269333 -0.014880837 0.19199382 -0.121318735 -0.0075347833 -0.21875893 -0.13629557 -0.28883785 -0.10189461 -0.20317012 0.17586705 -0.16288912 -0.13734213 -0.273573
7 0.11399925 0.14453754 -0.046298116 0.026446512 0.07255864 -0.17549329 0.23886542 -0.003645534 -0.11850552 0.099471845 -0.058456436 -0.22641866 -0.09392813 0.08502777 -0.051799778 0.14761384 -0.022111624 -0.052650552 -0.12313902 -0.12102477 -0.15049987 -0.097701825 0.24521054 0.017086713 0.08874964 -0.09250828 -0.0400131 -0.24981454 -0.067044266 -0.046249423 -0.116542734 0.0665878 -0.08069998 -0.109435596 0.046315882 -0.10286162 0.17310607 0.07852461 0.1039947 -0.44138548 -0.1324262 -0.04325957 0.08482148 0.061878745 0.21027312 -0.066495076 -0.0361948 0.05397876 -0.21038066 -0.12720749 0.0385863 -0.02758852 0.18823408 -0.11015359 -0.0060405917 -0.22735447 -0.14050785 -0.27429035 -0.10352135 -0.20653386 0.17283143 -0.1687742 -0.14634265 -0.28165117
5 0.11566779 0.15920658 -0.05680869 0.033621382 0.074508995 -0.1781504 0.2375844 -0.0027039803 -0.11897297 0.0949727 -0.056297008 -0.24425638 -0.102651745 0.08814558 -0.04547674 0.1680328 -0.031787723 -0.0464945 -0.119120486 -0.12459222 -0.16048013 -0.114734985 0.26907206 0.02566494 0.11195757 -0.09327005 -0.030584881 -0.2559262 -0.07960612 -0.04358194 -0.11483563 0.057867836 -0.09821695 -0.115744956 0.054634105 -0.10481334 0.19331689 0.09562439 0.10730817 -0.4660016 -0.13230333 -0.047212884 0.08331986 0.056420293 0.21203563 -0.06032304 -0.048219766 0.05714057 -0.2185844 -0.14337909 0.05122836 -0.020636726 0.19028796 -0.13394788 -0.005550509 -0.23781057 -0.14233673 -0.30559808 -0.0978769 -0.21910356 0.17702605 -0.17613256 -0.15283442 -0.29166633
1 0.107659966 0.17523357 -0.05053337 0.035078958 0.08343069 -0.17620137 0.23519713 0.004727233 -0.109054394 0.11413668 -0.052509684 -0.24502505 -0.1001759 0.08576551 -0.06444281 0.16955309 -0.019264802 -0.048379444 -0.12160416 -0.12990825 -0.1632792 -0.095640205 0.27518967 0.01884849 0.1185437 -0.10844698 -0.029224316 -0.26954827 -0.069670424 -0.04971821 -0.111265875 0.06346796 -0.09652558 -0.12446631 0.06278096 -0.091234766 0.1878365 0.100947745 0.098746315 -0.4828896 -0.12042851 -0.041660797 0.098649934 0.04480151 0.23482348 -0.061515793 -0.04179943 0.071455166 -0.21785805 -0.13644172 0.062990084 -0.027165348 0.21458165 -0.13853325 -0.0023328697 -0.23548245 -0.15436026 -0.31675437 -0.097466014 -0.2164512 0.18799068 -0.16628431 -0.14089575 -0.2922344
2 0.107760966 0.166149 -0.0498109 0.025345942 0.08669273 -0.17673217 0.24053848 -0.0058354926 -0.123027824 0.11167241 -0.06102188 -0.22526605 -0.105070084 0.08847901 -0.063754894 0.16170046 -0.033342857 -0.058774743 -0.121246494 -0.119659804 -0.15592031 -0.090837285 0.27181065 0.028996853 0.09798013 -0.09737878 -0.037153017 -0.25296095 -0.0811202 -0.043610368 -0.12309357 0.07367112 -0.09763679 -0.12680495 0.0548178 -0.09899614 0.17339289 0.09140983 0.10514903 -0.46134982 -0.12159115 -0.03675836 0.10081063 0.049111526 0.22259837 -0.06016908 -0.03186781 0.062161032 -0.21814787 -0.12699452 0.05790312 -0.026621155 0.2032221 -0.12378101 -0.012976123 -0.22998935 -0.14103074 -0.29278627 -0.10311998 -0.212423 0.18485838 -0.16216776 -0.13792638 -0.29180843
8 0.114255294 0.1578026 -0.043570474 0.03648909 0.08519938 -0.18724044 0.24907753 -0.007239145 -0.11091352 0.10203646 -0.056945667 -0.23805733 -0.0922037 0.08332879 -0.04394858 0.16757594 -0.017728988 -0.057556644 -0.1268611 -0.1253762 -0.14410587 -0.11332787 0.2673077 0.02291181 0.10402499 -0.09247174 -0.02577286 -0.2541041 -0.07394608 -0.05568829 -0.1228358 0.07350464 -0.087996826 -0.11434589 0.03924186 -0.09548842 0.18696415 0.08756067 0.10215021 -0.46568736 -0.12866025 -0.04387662 0.0918809 0.054487783 0.21355659 -0.07268682 -0.04274834 0.07250639 -0.21143825 -0.14055353 0.03821584 -0.017654434 0.19916587 -0.12482845 -0.0039938632 -0.23809065 -0.1463025 -0.30209613 -0.10948213 -0.2209727 0.18203734 -0.16951118 -0.14584336 -0.29429418
6 0.11670187 0.15029752 -0.047783826 0.040054757 0.0749023 -0.17334451 0.24670412 -0.0059364894 -0.11577629 0.09661479 -0.056320563 -0.24392785 -0.09148086 0.07879986 -0.047997504 0.16238052 -0.014846313 -0.058960464 -0.13649975 -0.1231738 -0.14888276 -0.105063595 0.255927 0.013618819 0.09590936 -0.103579134 -0.028835265 -0.25430667 -0.06437545 -0.049798023 -0.12315485 0.07002192 -0.079168126 -0.1188584 0.050684877 -0.099592455 0.18923095 0.08729787 0.09263864 -0.46755672 -0.137515 -0.03239566 0.099724084 0.05282891 0.22557193 -0.06496943 -0.050412346 0.06648582 -0.21697703 -0.14461668 0.039239004 -0.026818777 0.20762964 -0.11935196 0.004748243 -0.24103291 -0.14449579 -0.30537733 -0.10092539 -0.21386726 0.18052705 -0.17526327 -0.14459234 -0.29702568
9 0.10373642 0.15413861 -0.04406705 0.027799051 0.07798455 -0.17985176 0.22501838 -0.0091253305 -0.105100855 0.092467785 -0.050709363 -0.23369178 -0.09813901 0.08163678 -0.051390808 0.15767165 -0.028888972 -0.043157756 -0.12521578 -0.1243798 -0.14814118 -0.108236 0.25836223 0.019394608 0.10486644 -0.0941162 -0.03182991 -0.2409014 -0.07463558 -0.04871929 -0.11682409 0.06818435 -0.08177887 -0.109024495 0.04516481 -0.09841763 0.17951432 0.095672 0.09573789 -0.4359969 -0.1325947 -0.046583164 0.08518713 0.059073903 0.21074417 -0.05738941 -0.04841399 0.06419171 -0.20888606 -0.12458806 0.04345733 -0.015136599 0.18074812 -0.11485845 -0.010423221 -0.21913356 -0.13384262 -0.28308293 -0.09793867 -0.21273339 0.17699866 -0.16952732 -0.14454424 -0.27702826
4 0.11209325 0.14808626 -0.052797854 0.0377766 0.07373498 -0.16846383 0.23278263 0.0010097809 -0.10623888 0.102228105 -0.045756605 -0.23151112 -0.09398547 0.08304201 -0.05736082 0.16415623 -0.024099924 -0.055664644 -0.12757231 -0.11300844 -0.14331518 -0.09869292 0.261812 0.01365128 0.10660225 -0.10267123 -0.021662671 -0.24800882 -0.06343029 -0.044755995 -0.11321725 0.057849906 -0.079669036 -0.11372136 0.05386576 -0.095670834 0.1793458 0.092168815 0.089045726 -0.45266852 -0.12560172 -0.03537006 0.08422509 0.05425825 0.21704249 -0.06280506 -0.04445891 0.069904245 -0.20609899 -0.1393533 0.048531912 -0.017114138 0.19419745 -0.13082583 0.004526526 -0.23417762 -0.13867469 -0.30104423 -0.103942774 -0.20358714 0.17219637 -0.1589001 -0.13517956 -0.28662
10 0.11107854 0.15572366 -0.05499908 0.03161537 0.080619134 -0.18524902 0.2471035 -0.010344517 -0.12255981 0.10148666 -0.06433245 -0.23953249 -0.10187815 0.0887061 -0.05519184 0.16876239 -0.022388684 -0.053232573 -0.1343338 -0.1237492 -0.15629013 -0.10482997 0.2718886 0.028905163 0.10308582 -0.088617936 -0.037546482 -0.2584439 -0.075843185 -0.047988802 -0.11293056 0.07038528 -0.08440354 -0.12111164 0.047479864 -0.1075798 0.19073646 0.09949553 0.10855832 -0.4627673 -0.13846238 -0.041852344 0.09898851 0.06000403 0.22115533 -0.07135388 -0.039460722 0.0690899 -0.20700087 -0.1315573 0.04571346 -0.01860866 0.20196205 -0.13194574 -0.0080212075 -0.23205324 -0.14636876 -0.30014673 -0.10393087 -0.21793324 0.17873241 -0.16885877 -0.15225029 -0.2964201
