34 64
1 -0.09246598 -0.034415103 -0.12979613 -0.00991652 0.0018576311 0.19729683 -0.10281923 -0.008121887 -0.27285823 -0.12269061 0.13636549 -0.5678908 -0.332165 0.15066992 0.05687542 0.18093577 -0.12556835 -0.22753972 0.13685921 0.059950747 -0.20686373 -0.14269379 0.17476647 0.04362953 0.06587581 0.14249346 -0.0005717478 -0.026991328 0.20961305 -0.18359052 0.041943472 0.30497724 0.1496664 -0.14585753 -0.0028587247 -0.091043 0.24947822 0.16738096 0.01922391 0.24195585 0.2039384 0.12252158 0.07391694 -0.28401333 -0.1868604 0.11349924 0.0035384614 -0.1598433 -0.19768097 -0.15868852 0.15684503 0.18125777 -0.03225822 0.1645059 0.061377898 0.11015905 -0.07642987 -0.019375077 0.065720275 -0.015515721 -0.12658733 -0.072868444 0.1109058 0.01594691
34 0.08556432 -0.09975683 -0.18753392 0.07550656 -0.117773905 0.009763049 -0.038274027 -0.22807924 -0.13552433 -0.07400773 0.2754316 -0.026281204 -0.047988296 0.0849558 0.04682484 0.09605641 0.18400687 -0.1927509 -0.14200065 -0.022711221 -0.13861749 -0.31853792 0.2469025 -0.061075404 -0.1658119 -0.03444379 -0.11794866 -0.18786958 0.08231055 -0.42307433 -0.15404865 -0.21086317 -0.08040419 -0.046150927 0.029467667 -0.28507948 0.39570564 0.0523345 0.047665484 0.35319838 0.10160858 0.16784757 0.40647227 -0.3150263 -0.1852488 -0.015026982 -0.011403671 0.26118937 -0.07639953 0.256228 0.075102575 -0.14372678 -0.32739758 -0.034685586 -0.069584176 0.01670808 0.12086279 0.20684832 -0.00430656 -0.11863122 0.034577485 0.07903865 0.05578274 -0.06500813
33 0.062121283 -0.10896074 -0.18979573 0.025520796 -0.045061048 -0.01969315 -0.011862504 -0.20784321 -0.11767222 -0.06229614 0.27839705 -0.020637758 0.0021989364 0.059205014 0.0278351 0.050368644 0.20111799 -0.20353124 -0.17592824 -0.008206472 -0.10982758 -0.34292322 0.26278737 0.00849197 -0.20600243 -0.07930293 -0.14053111 -0.17821437 0.07647529 -0.39777362 -0.121522136 -0.20739159 -0.116959475 -0.043669038 0.052104298 -0.2881485 0.41361442 0.0089106625 0.08636103 0.3845294 0.059424356 0.2051089 0.33945352 -0.27004877 -0.2057725 -0.057969566 -0.046925914 0.31194672 -0.10680656 0.26368162 0.07439155 -0.16040187 -0.36352706 0.0006616647 -0.032187514 0.019848924 0.07355789 0.16901045 -0.0032451807 -0.12246144 0.06896288 0.019338392 0.0072006914 -0.095986456
3 -0.013544653 -0.07930804 -0.10950067 0.028266994 -0.11457299 0.10292579 -0.1419787 -0.16060416 -0.20035356 -0.15368527 0.18391001 -0.23775959 -0.26617596 0.11801119 -0.037633665 0.1241097 0.046904776 -0.2692465 -0.11927654 -0.1524309 -0.2263662 -0.2496615 0.24085708 -0.061466552 -0.075727135 0.09997288 -0.060512852 -0.056458473 0.1664969 -0.29555857 -0.020358339 -0.028984506 0.024198815 -0.20436941 0.017682482 -0.114265405 0.42642337 0.1462782 0.05427353 0.21135283 0.20218688 0.15521276 0.1942388 -0.29031402 -0.16674645 0.09699412 -0.09179764 0.08215977 0.007921808 0.018314216 0.22149746 0.09197104 -0.17151631 0.03649714 -0.027166504 -0.013919399 0.05811421 0.12522255 -0.0012849714 -0.0853504 -0.06577697 0.10274052 0.0051291804 0.024838215
2 -0.07636882 -0.07269266 -0.07006079 -0.0038519644 -0.048317783 0.19707066 -0.15401244 -0.07538293 -0.25091267 -0.21082519 0.15370026 -0.44173387 -0.41570583 0.1406385 -0.061792094 0.12493074 -0.05736328 -0.34650195 -0.10592662 -0.18427494 -0.27653262 -0.22318132 0.23973668 -0.06551933 -0.012535908 0.16422571 -0.029351236 0.02638785 0.21152377 -0.21889077 0.08041432 0.12142046 0.10878271 -0.29291397 0.0192041 -0.03857612 0.4383174 0.18935436 0.05777658 0.17500459 0.256628 0.17046314 0.061593447 -0.29373777 -0.17024788 0.16605167 -0.136399 -0.036508977 0.02888144 -0.14146477 0.33422673 0.25677115 -0.07760641 0.11442087 0.027003538 0.0031827874 0.004672559 0.048642702 0.031317573 -0.05162633 -0.13793153 0.08118638 0.0039703962 0.07195239
4 -0.08675255 -0.058871858 -0.06528672 -0.0029133928 -0.09464904 0.2010701 -0.1878045 -0.09725707 -0.26378798 -0.22090988 0.13842095 -0.4524485 -0.44165313 0.1525168 -0.09307029 0.15473905 -0.061249327 -0.35014668 -0.10248287 -0.23110563 -0.30711085 -0.2028663 0.24369097 -0.07194364 0.008659755 0.19099477 -0.019285329 0.039143022 0.25096014 -0.22984967 0.09802337 0.13537852 0.12171965 -0.30873415 0.009551058 -0.008393518 0.42869508 0.22096552 0.0489653 0.14580595 0.29049855 0.17021649 0.06625952 -0.31163844 -0.15678571 0.19483323 -0.12153125 -0.07951588 0.060980853 -0.1640907 0.34472752 0.28979272 -0.077269875 0.11421856 0.016493432 -0.007152867 0.016771834 0.06070767 0.021704314 -0.0539327 -0.137273 0.11778951 0.0047611524 0.08485546
32 0.10949855 -0.046933237 -0.23131913 0.22608264 -0.263168 0.07243578 -0.054329887 -0.08303041 -0.123368934 -0.060766194 0.2672848 -0.18320403 -0.06907198 0.18811932 0.16130702 0.24262889 0.03468006 -0.003496563 -0.015794914 0.10867599 -0.14887509 -0.04825425 0.28713092 -0.16428865 -0.025104541 -0.032746125 -0.10576039 -0.113534056 0.17820284 -0.39307746 -0.2694122 -0.04780701 0.127622 0.03903277 -0.056824584 -0.24526422 0.11694272 -0.018326452 0.0016257905 0.44430393 -0.039712645 -0.0010658115 0.49882543 -0.40785033 -0.117246956 -0.11363165 0.24899645 0.061330713 -0.06702651 0.06529075 -0.03309445 -0.122236505 -0.07646763 -0.13605575 -0.18774267 0.06447382 0.14729226 0.16786858 0.075577766 0.03854358 0.035334583 0.1447119 0.17736165 -0.06542022
14 -0.046037875 -0.068732545 -0.10704614 -0.0034144637 -0.054052927 0.124545306 -0.12533581 -0.10667155 -0.21775608 -0.122862555 0.16816455 -0.37552243 -0.26412284 0.11819096 0.00061143993 0.12097023 -0.010868059 -0.26499352 -0.047009233 -0.059481163 -0.21275134 -0.21741724 0.2460971 0.0032919091 -0.013625087 0.09990881 -0.050174296 -0.042036995 0.18505232 -0.25201967 0.0074359733 0.07693085 0.068525046 -0.19201663 0.027819468 -0.09965991 0.36793044 0.12589459 0.05238402 0.23823787 0.17836532 0.15953462 0.15299211 -0.28152138 -0.17802882 0.07211329 -0.069554634 0.0008907614 -0.077676415 -0.04767294 0.18312971 0.11601384 -0.12983729 0.108852856 0.020852609 0.054012764 0.007103903 0.04498006 0.041313354 -0.060237158 -0.07727501 0.03736257 0.03792007 0.007447706
24 0.14412224 -0.10593417 -0.23624061 0.22706197 -0.26700994 0.018908583 -0.03481718 -0.16925532 -0.08920108 -0.078590654 0.31157425 -0.012529659 -0.0009262346 0.16072002 0.10722783 0.16982552 0.15369532 -0.06907015 -0.18199779 0.0047637997 -0.13598004 -0.16864787 0.3237412 -0.18847488 -0.12262312 -0.091487385 -0.14856178 -0.15388568 0.14805613 -0.47459856 -0.27783492 -0.25362068 0.025207797 0.018008795 -0.028206917 -0.3019161 0.23723854 -0.049494546 0.0382065 0.44974065 -0.059777148 0.05784984 0.55407834 -0.3925998 -0.12874994 -0.11170144 0.14831936 0.24692789 0.022799203 0.2044305 0.036822982 -0.18500368 -0.2178596 -0.1966409 -0.20758548 0.013393685 0.20829798 0.23080406 0.03367452 -0.020265903 0.076560415 0.20863627 0.10683043 -0.07992549
9 0.029454581 -0.092734374 -0.17085433 0.052591674 -0.068010464 0.04427738 -0.052943893 -0.160683 -0.15438685 -0.08379061 0.23046958 -0.16036 -0.10282481 0.10162974 0.05914514 0.10519168 0.1000405 -0.19578147 -0.079831615 0.008767826 -0.1411295 -0.25605485 0.23141879 -0.016360076 -0.103574604 0.0013185472 -0.08444172 -0.1379958 0.11497254 -0.33796453 -0.09826855 -0.08922884 -0.008023246 -0.06324607 0.019218402 -0.23861562 0.34481415 0.05032277 0.0527811 0.32875213 0.097268716 0.1513483 0.30469477 -0.29267827 -0.1875046 -0.0054554464 -0.0134923 0.15398897 -0.107124135 0.15165219 0.08311166 -0.07706922 -0.24635336 0.013093128 -0.020602262 0.038205024 0.05963408 0.14089097 0.013999069 -0.087587945 0.006232959 0.029166358 0.06523669 -0.043294083
8 -0.061240643 -0.06545765 -0.08064271 -0.0061116465 -0.07597434 0.16386023 -0.186928 -0.13629253 -0.2658842 -0.20093156 0.1514559 -0.3961369 -0.38239744 0.12930614 -0.066065 0.12726936 -0.033221252 -0.3364068 -0.09429274 -0.18875837 -0.26650885 -0.25655955 0.24297163 -0.041671008 -0.0062584737 0.16959576 -0.025679562 -0.012572362 0.21834792 -0.2524241 0.06740332 0.07618948 0.08287557 -0.28595385 0.006042654 -0.049206786 0.44748104 0.21245427 0.06329237 0.15797944 0.27673903 0.19310537 0.09704118 -0.30208868 -0.18673101 0.16443244 -0.13357994 -0.030063823 0.01013201 -0.095732115 0.30655286 0.22552142 -0.118783884 0.10835883 0.018904924 0.014374782 0.011354557 0.08047148 0.008556674 -0.0660714 -0.13012959 0.082682386 0.009062672 0.071169674
28 0.11675686 -0.060161743 -0.1952356 0.23978627 -0.26754037 0.078751296 -0.0638751 -0.12097302 -0.13878392 -0.097728394 0.25775716 -0.13363817 -0.12732768 0.1646883 0.11977696 0.20383759 0.06836208 -0.04465985 -0.11379688 0.0005711762 -0.15907952 -0.10529913 0.29370672 -0.21284074 -0.027578423 -0.013402942 -0.11183886 -0.10119353 0.16727932 -0.40612626 -0.25248024 -0.10527733 0.109039895 -0.029732656 -0.048779193 -0.2187775 0.18717265 0.025886102 0.0034043523 0.37757522 0.009736196 0.04131591 0.49960864 -0.39406076 -0.12047725 -0.050955955 0.17288452 0.098226875 0.036434848 0.0847321 0.0582556 -0.06612973 -0.09576238 -0.16976972 -0.2116785 0.010429316 0.17897259 0.18982641 0.039680377 0.041709863 0.008340996 0.2173342 0.116616026 -0.026882252
6 -0.18607368 0.0047636065 -0.24908753 -0.12937126 0.16189173 0.27194026 -0.01672032 0.10938285 -0.36365473 -0.033717692 0.18174857 -0.9442071 -0.32751775 0.1620312 0.1763005 0.2589752 -0.19978008 -0.17686011 0.43273124 0.39645025 -0.16394998 -0.11964414 0.19075343 0.2707759 0.10438445 0.124570236 0.005604962 -0.08620409 0.2474843 -0.16437483 0.06221385 0.6732325 0.21942118 -0.02325458 0.045564383 -0.15242712 0.17020229 0.13900006 0.0038674579 0.48962432 0.20978886 0.16513026 0.035153676 -0.32328507 -0.29195553 0.052886494 0.12331153 -0.295986 -0.58360976 -0.24202281 -0.033432838 0.1554011 0.03066921 0.39967805 0.18100439 0.2757893 -0.25672165 -0.20672731 0.17042227 -0.012861887 -0.14446774 -0.34868744 0.2039069 -0.09525246
7 -0.12793846 -0.00973342 -0.26359272 -0.11205987 0.14306045 0.21801116 -0.0077578323 0.07730302 -0.31488633 0.032746278 0.1991107 -0.84084535 -0.22298557 0.15888356 0.2207212 0.25134322 -0.15522176 -0.13750333 0.4365706 0.45258436 -0.11560601 -0.12834537 0.21312846 0.27938697 0.080591515 0.066023886 -0.011679132 -0.13031442 0.19324633 -0.19196394 -0.014829433 0.5686046 0.16425247 0.028634118 0.053313293 -0.19911005 0.16349646 0.08454019 -0.0028505253 0.5280988 0.1375465 0.14745168 0.11721115 -0.31627023 -0.30376393 -0.024151742 0.14177106 -0.22528063 -0.615035 -0.15324496 -0.11019889 0.031252917 -0.03141749 0.36226827 0.1385675 0.29386806 -0.2349941 -0.16322155 0.17146577 -0.03593245 -0.10382402 -0.34953085 0.2016017 -0.13087116
31 0.050857775 -0.08754438 -0.13179426 0.06730271 -0.09155101 0.04271384 -0.069356374 -0.18177186 -0.1480484 -0.09291328 0.22366105 -0.13163859 -0.1348895 0.09335044 0.008510412 0.09814181 0.123559825 -0.21932769 -0.15379314 -0.072769105 -0.16316517 -0.26532423 0.24611984 -0.060452957 -0.12457139 0.025049658 -0.10254737 -0.114223205 0.10442046 -0.3490788 -0.089300886 -0.13549036 -0.029056517 -0.12138996 0.027100451 -0.20496884 0.3947005 0.06364851 0.050033644 0.30409345 0.11983694 0.1579108 0.30454817 -0.2922673 -0.16330697 0.0106997425 -0.049350664 0.19188978 -0.029601585 0.14612016 0.14259726 -0.03825518 -0.24326895 0.0041175107 -0.031655606 0.011715032 0.07698013 0.13765392 0.008637505 -0.08557138 -0.0050570457 0.08610276 0.015870094 -0.032197095
30 0.16234569 -0.10548653 -0.23046152 0.17618331 -0.19762905 -0.017045433 -0.001538502 -0.2089307 -0.08799996 -0.05710563 0.32422727 0.04309721 0.013011586 0.1260221 0.08772163 0.12014528 0.2307283 -0.10928449 -0.20616677 0.014228065 -0.12429613 -0.2738611 0.2939779 -0.13576956 -0.19313514 -0.09080489 -0.15112993 -0.19284949 0.09859264 -0.49889606 -0.25377217 -0.29398975 -0.06356263 0.01812394 0.0016010436 -0.34848073 0.31268102 -0.018471977 0.042857528 0.4536935 0.0016518384 0.118275404 0.55132234 -0.36730066 -0.15339154 -0.06354035 0.083112866 0.3200735 -0.02543457 0.29266274 0.050001 -0.20509502 -0.3225522 -0.14991847 -0.15712497 0.0009496734 0.1905368 0.23344935 0.00973562 -0.080045514 0.08531868 0.16459145 0.09387236 -0.09312209
25 0.17642938 -0.047314264 -0.2557638 0.34653103 -0.37619925 0.06981302 -0.062133927 -0.10954786 -0.10166488 -0.09074252 0.29116672 -0.103683226 -0.06606454 0.23771285 0.19227105 0.28419784 0.043864254 0.046610605 -0.0931998 0.054610845 -0.15712824 -0.006611585 0.3205589 -0.30029318 -0.027264923 -0.052646406 -0.12847756 -0.10585839 0.19466834 -0.4562101 -0.36043516 -0.13369183 0.1748374 0.066096686 -0.10348045 -0.26921272 0.058451198 -0.02518003 -0.012992681 0.46687043 -0.10143756 -0.040672164 0.63100237 -0.46875864 -0.08157734 -0.12991327 0.3318563 0.083177425 0.047092408 0.07457256 -0.011991231 -0.13948363 -0.05488014 -0.26094595 -0.29519853 0.028670339 0.22530335 0.24316904 0.058524888 0.09209473 0.05621235 0.26853824 0.19062963 -0.048754457
29 0.034327213 -0.064454004 -0.15523823 0.09538486 -0.1659121 0.0726993 -0.087431274 -0.14633365 -0.13991828 -0.10473918 0.21923925 -0.17547141 -0.12827872 0.14519404 0.0322523 0.15504193 0.060830627 -0.16488853 -0.11344109 -0.06191527 -0.1638662 -0.18790054 0.27017355 -0.09217124 -0.07990262 0.0180712 -0.08759308 -0.08945054 0.160033 -0.35464373 -0.13265468 -0.097069815 0.044279933 -0.07888592 0.0046593123 -0.18946673 0.29809994 0.04234054 0.046264485 0.30909586 0.071547896 0.112785235 0.34081358 -0.34193078 -0.15030774 0.005742911 0.04278462 0.1142453 -0.0036611978 0.066842504 0.10197965 -0.031283285 -0.16221999 -0.048588283 -0.0998546 0.006234017 0.11888402 0.14598425 0.030931246 -0.055733353 0.0062913885 0.12541968 0.07679373 -0.02596278
5 -0.16486962 -0.012845443 -0.21643606 -0.12889756 0.13725613 0.23841909 -0.051429804 0.064057335 -0.3303456 -0.03911431 0.16163732 -0.8554612 -0.31704596 0.15993737 0.13465948 0.22026347 -0.1881991 -0.21737184 0.36092588 0.3231685 -0.17822474 -0.14563899 0.19801433 0.25688466 0.09093422 0.13309427 0.0079972185 -0.08640899 0.24095994 -0.16856909 0.06480005 0.558686 0.16960041 -0.06805817 0.042305276 -0.13070686 0.22334024 0.1419326 0.016993023 0.40530154 0.21117587 0.17447245 0.013705166 -0.30250072 -0.29146245 0.05286857 0.053295832 -0.25439525 -0.51765263 -0.20955169 0.019324265 0.14130145 -0.023849558 0.3544404 0.17520745 0.24992803 -0.23675668 -0.16649811 0.13951011 -0.030288285 -0.15149397 -0.30506822 0.17481454 -0.06864507
11 -0.177576 -0.018360497 -0.21256956 -0.16492641 0.18833043 0.22293852 -0.060088184 0.058768 -0.34267318 0.0017304998 0.16830012 -0.8784016 -0.2817625 0.12968524 0.14415255 0.19644389 -0.14935827 -0.21339986 0.39023262 0.38292244 -0.14689167 -0.18424706 0.21583593 0.3087828 0.08346595 0.11535787 -0.0045221406 -0.105268314 0.1955064 -0.1616075 0.08105235 0.57670796 0.120156005 -0.06982022 0.08237104 -0.1505148 0.26209137 0.12182992 0.028194698 0.45919302 0.19188187 0.19758072 -0.0064312154 -0.26947016 -0.31510788 0.023053018 0.028159956 -0.2270089 -0.5774583 -0.20038958 -0.007678248 0.09890342 -0.05557439 0.42990533 0.18977897 0.28232333 -0.27182588 -0.1973399 0.14383665 -0.04911609 -0.13089018 -0.3660301 0.14682758 -0.105574876
26 0.1866568 -0.050667305 -0.26147997 0.38696858 -0.4163982 0.07215465 -0.060537927 -0.13165422 -0.11261261 -0.10189429 0.3086586 -0.07391698 -0.05897002 0.24269727 0.20558225 0.29551166 0.064355955 0.07368078 -0.12563609 0.048413474 -0.16387084 -0.008220374 0.34468344 -0.34007624 -0.0178137 -0.07657036 -0.15852156 -0.12960897 0.20824936 -0.5120445 -0.39198005 -0.17549995 0.1723712 0.052700266 -0.10739861 -0.28307742 0.060096987 -0.029505648 -0.0122731365 0.48662677 -0.1020368 -0.05297588 0.69403154 -0.4968129 -0.09372817 -0.1335043 0.34098268 0.11039579 0.0688132 0.10417296 -0.019901399 -0.15448655 -0.05753273 -0.31128347 -0.34704953 0.009547818 0.28048736 0.27144176 0.064362705 0.112705864 0.067674465 0.306861 0.21225059 -0.03722582
20 -0.0478776 -0.048859265 -0.117217645 0.0073760776 -0.04726898 0.13946877 -0.11792989 -0.09087538 -0.22952229 -0.13412362 0.17532289 -0.37297592 -0.264097 0.12720546 0.006413473 0.13508958 -0.00671282 -0.23886172 -0.03712952 -0.04536087 -0.20876105 -0.21197714 0.22918528 -0.005932821 -0.020756472 0.10736802 -0.05319697 -0.05288913 0.17420429 -0.25131214 0.015421233 0.09906646 0.07104508 -0.17368816 0.019942354 -0.11347725 0.33844525 0.14370497 0.03932396 0.2450068 0.18759176 0.1653946 0.14997971 -0.2888973 -0.17970434 0.10379093 -0.035714593 -0.0045255767 -0.07409729 -0.040452942 0.18771738 0.124024846 -0.13091302 0.10163304 0.009247332 0.05074993 -3.3721328e-05 0.050832905 0.022752715 -0.04827527 -0.069587514 0.026185824 0.054916374 0.0059370883
13 -0.06939851 -0.047155466 -0.09465118 0.013255337 -0.091420926 0.18057653 -0.16927427 -0.082923874 -0.2627095 -0.1930253 0.1609191 -0.455191 -0.37394732 0.1498475 -0.027597578 0.158772 -0.07258887 -0.3004162 -0.044346903 -0.12899457 -0.27067885 -0.20277494 0.24200986 -0.049736086 0.030435506 0.16135512 -0.027120268 -0.0065007107 0.23732795 -0.2431764 0.04759927 0.15360844 0.121317156 -0.25418293 -0.008907458 -0.06102785 0.37618566 0.19497044 0.0424738 0.18852556 0.23488638 0.14933383 0.10427159 -0.3143077 -0.17912908 0.14075114 -0.0647829 -0.07197059 -0.02521902 -0.1335381 0.2803862 0.23040873 -0.08627283 0.10591147 0.008011345 0.033975966 1.1824745e-05 0.056897853 0.024800232 -0.028865878 -0.12649663 0.08034379 0.044747848 0.05504793
18 -0.096447095 -0.042801548 -0.11268964 -0.015141608 -0.030927124 0.20086585 -0.15405546 -0.050729174 -0.28494653 -0.17242306 0.14988767 -0.54155767 -0.37509444 0.14777641 0.0040507307 0.16768141 -0.08652678 -0.28476447 0.02104182 -0.040564306 -0.2462456 -0.19028743 0.24096039 0.01040694 0.041616544 0.1561857 -0.018941216 -0.0111734355 0.22754854 -0.21792486 0.069565184 0.23763269 0.13157521 -0.22814138 0.010812249 -0.06775231 0.35865045 0.17746486 0.046144273 0.24767001 0.22278406 0.17255571 0.06990356 -0.30277812 -0.19618331 0.12004423 -0.0478467 -0.100259095 -0.10588492 -0.16918427 0.23565133 0.21393381 -0.061136372 0.16142185 0.044420052 0.07833901 -0.059509438 0.0015827422 0.04566789 -0.015611173 -0.12701268 -0.0051635616 0.05468544 0.033885412
22 -0.077408835 -0.033732276 -0.114014365 0.002829209 -0.032336395 0.19687991 -0.12647524 -0.041418225 -0.27014476 -0.16326775 0.14772804 -0.51037097 -0.36576158 0.13318352 0.0019726316 0.17391627 -0.07827329 -0.25300896 0.023278572 -0.03281233 -0.23094204 -0.18196975 0.20844944 -6.069374e-05 0.029210849 0.16040498 -0.03130064 -0.022309422 0.21412136 -0.21474612 0.04417075 0.23437375 0.13649671 -0.19602872 0.0013796637 -0.07319844 0.32314965 0.18491672 0.034008365 0.23793928 0.23241033 0.1619111 0.08880665 -0.28988397 -0.18444782 0.13818872 -0.020279778 -0.102006264 -0.08851839 -0.13821478 0.22643931 0.20934603 -0.048692897 0.13865499 0.035595745 0.06341602 -0.040041134 0.0027346183 0.047813207 -0.008169478 -0.12558955 0.008831551 0.05711038 0.031171843
17 -0.20651717 -0.021838054 -0.2859499 -0.24127468 0.28995368 0.232998 0.014011697 0.09250403 -0.34396204 0.05624194 0.2014139 -0.98762006 -0.22649774 0.122589245 0.21289574 0.21601152 -0.16976319 -0.18168092 0.5282396 0.55745876 -0.09129751 -0.18544272 0.2082563 0.44562793 0.04789585 0.063769355 0.007874065 -0.16510276 0.19411561 -0.15582521 0.06888919 0.68923247 0.13856882 0.044702005 0.111710414 -0.22050752 0.2284957 0.08070429 0.035156403 0.5897145 0.17378521 0.23008507 0.0050432878 -0.27815434 -0.3636148 -0.033866588 0.09205181 -0.24661796 -0.79294604 -0.17603955 -0.13707952 0.025027473 -0.06476501 0.51338214 0.2647821 0.35726744 -0.36239496 -0.26390162 0.1875436 -0.07499341 -0.12561175 -0.5142162 0.19896114 -0.1649898
23 0.11220222 -0.112202734 -0.19122832 0.13266733 -0.13094242 -0.012606334 -0.013941752 -0.19147563 -0.12091685 -0.053822767 0.28208372 -0.037463665 -0.027484955 0.11446931 0.09275106 0.10471036 0.1816357 -0.14302891 -0.1573581 0.01885487 -0.12073212 -0.25900978 0.25889006 -0.09614894 -0.16849616 -0.052649308 -0.12885256 -0.15875275 0.0884311 -0.42011142 -0.19452073 -0.22551528 -0.044229295 -0.012669481 0.015363927 -0.29304108 0.32918432 -0.004887877 0.046160404 0.40998182 0.022094447 0.11075739 0.44565958 -0.31887737 -0.1614655 -0.06224054 0.02076133 0.2714021 -0.0662161 0.24754144 0.05901776 -0.17210223 -0.2863898 -0.09298509 -0.091118224 0.0123219 0.13549241 0.19408147 0.012780093 -0.077037655 0.06062388 0.09244449 0.05943077 -0.08113926
10 0.051097933 -0.101509355 -0.12674561 0.07758071 -0.122597 0.06715294 -0.09481085 -0.19985825 -0.15942444 -0.12995702 0.2348333 -0.11923993 -0.16892266 0.106981955 -0.02381076 0.09708767 0.10731415 -0.2548078 -0.19750829 -0.15389119 -0.18857376 -0.28398895 0.25062034 -0.09688941 -0.112310536 0.03038461 -0.09268269 -0.10559513 0.13764867 -0.3709726 -0.08907093 -0.17135772 -0.0068913586 -0.15028016 0.023189839 -0.19251983 0.40860012 0.08922637 0.051773574 0.26790202 0.14674973 0.17103413 0.3201267 -0.3169681 -0.15901257 0.05763549 -0.05076799 0.19308649 0.048846886 0.12845153 0.18380561 0.00408806 -0.24295813 -0.027070032 -0.05385489 -0.023751594 0.12596793 0.1653226 -0.009324508 -0.096744694 -0.011401166 0.14974506 0.019987604 -0.0064725964
15 0.08836641 -0.1018193 -0.2127375 0.069634154 -0.08693977 -0.02520532 0.0006486301 -0.18757242 -0.09893577 -0.013065206 0.2773792 -0.06052127 0.028154293 0.10112286 0.09091116 0.09549215 0.18279323 -0.13250336 -0.10404479 0.08955566 -0.0840199 -0.27158558 0.2700693 -0.0027718975 -0.17500044 -0.07665804 -0.12169765 -0.1917936 0.07590397 -0.40343738 -0.18485132 -0.19732988 -0.06041551 0.025196165 0.041280426 -0.30886152 0.31582752 -0.03396276 0.04740939 0.43741092 0.008694483 0.1382101 0.42085433 -0.3007315 -0.19091569 -0.10306992 0.02451686 0.27594712 -0.15328607 0.251979 -0.008148026 -0.21261294 -0.3065416 -0.03474089 -0.062585 0.04598449 0.09543881 0.15261398 0.027153343 -0.11089388 0.07773431 0.024001077 0.064914584 -0.110363096
19 0.09239034 -0.1068849 -0.194878 0.10619423 -0.11069528 -0.015392873 -0.02397221 -0.20693457 -0.12697332 -0.03820819 0.290273 -0.047511842 -0.021811942 0.09971755 0.08883064 0.105536744 0.16902736 -0.17247063 -0.13031483 0.01869065 -0.12588431 -0.27773327 0.25731906 -0.04820572 -0.1581415 -0.053945273 -0.11797841 -0.17334878 0.09677084 -0.4184823 -0.19535841 -0.22916847 -0.05373603 -0.019029533 0.02414881 -0.3127484 0.3607388 0.0012674592 0.03852583 0.40093166 0.042677276 0.12436822 0.44112772 -0.32344797 -0.1876445 -0.06262962 0.0055612805 0.28684896 -0.097750746 0.25188667 0.050883256 -0.1856282 -0.31636527 -0.06681291 -0.07115185 0.022518702 0.12491785 0.18889835 0.01079368 -0.11646247 0.052776136 0.076821595 0.06282102 -0.09294775
16 0.12327461 -0.12421579 -0.21585952 0.08839588 -0.09419924 -0.06132535 0.015635096 -0.22283253 -0.08054442 -0.0062028626 0.30709448 0.0424262 0.055316657 0.068702005 0.086229414 0.0692812 0.25262743 -0.1435892 -0.17056248 0.05145543 -0.077733256 -0.3221859 0.27452636 -0.030889606 -0.22854818 -0.09424115 -0.14724882 -0.21546452 0.041852888 -0.4470053 -0.21287271 -0.2919607 -0.12989153 0.0178466 0.046640884 -0.3461395 0.37989575 -0.02963931 0.050957993 0.4460656 0.011346198 0.15954222 0.47081906 -0.29749075 -0.18543847 -0.09182817 -0.0073957546 0.365752 -0.11804613 0.3402703 0.0129551245 -0.2591782 -0.37390077 -0.069363475 -0.06244391 0.030971508 0.1285048 0.1951941 0.010535079 -0.13035405 0.08985202 0.04921113 0.046366647 -0.11461737
21 0.069383614 -0.12667407 -0.19616862 0.052578587 -0.05296459 -0.015676912 0.0021034398 -0.18978113 -0.122882225 -0.04503495 0.28347197 -0.039688785 -0.02792484 0.067213975 0.059460204 0.06539231 0.20260209 -0.18887189 -0.15045354 0.018291967 -0.105615795 -0.31695056 0.24600348 -0.01861558 -0.18509904 -0.060517676 -0.12047952 -0.17915718 0.07762624 -0.4017924 -0.1441719 -0.21492623 -0.09398717 -0.031130683 0.052463986 -0.2912556 0.3871385 -0.006490064 0.06536518 0.39974472 0.06314262 0.17567138 0.3808269 -0.2721793 -0.18096009 -0.043530274 -0.040949874 0.29341984 -0.099596664 0.26981863 0.06684115 -0.17114598 -0.33587128 -0.026775705 -0.028397467 0.028732687 0.100790255 0.15787336 0.008242156 -0.13037324 0.044439923 0.03606139 0.035132524 -0.10181722
27 0.110101216 -0.13055582 -0.19178237 0.087592274 -0.12948929 -0.03122114 -0.026445571 -0.23568681 -0.11428064 -0.04282843 0.28459126 0.013093182 -0.013017019 0.100936316 0.04813249 0.077775724 0.22059856 -0.18820731 -0.20095478 -0.0062018465 -0.108778715 -0.33414173 0.28692213 -0.047640678 -0.19229794 -0.06658016 -0.13666391 -0.19053876 0.08296869 -0.43772957 -0.18078172 -0.28810567 -0.10178551 -0.043477826 0.033315185 -0.29855072 0.3809769 -0.0076014916 0.053052705 0.38887918 0.049714092 0.16036527 0.44452173 -0.31459823 -0.18499535 -0.03655457 -0.033024766 0.32702085 -0.05566473 0.29088518 0.08374759 -0.18667717 -0.35457596 -0.083792046 -0.090779044 0.0056447326 0.15051 0.20700438 -0.00032926118 -0.11253745 0.06906435 0.110889375 0.031279232 -0.093453884
12 -0.10587845 -0.024716564 -0.12926142 -0.03305407 -0.0021179495 0.19419159 -0.12512225 -0.022019062 -0.2745004 -0.11286102 0.13285488 -0.5980003 -0.34352288 0.14768307 0.037939664 0.1678505 -0.1196223 -0.25543323 0.12964477 0.051007222 -0.2293575 -0.14779109 0.21543583 0.072720945 0.071456894 0.1395741 -0.01501909 -0.01476953 0.22692345 -0.18501386 0.06088385 0.31282723 0.12841947 -0.18785553 0.021409672 -0.05716574 0.30215597 0.16483133 0.03163824 0.24103174 0.21530567 0.133637 0.039846916 -0.28464374 -0.21120843 0.10470599 -0.030595891 -0.16041686 -0.19877602 -0.1841472 0.17132607 0.19552664 -0.043750968 0.20570278 0.06125843 0.11550117 -0.09817325 -0.041934878 0.07758374 -0.01778178 -0.13907723 -0.07403998 0.08480287 0.008193521
