10 10
7 0.25214878 -0.31839946 -0.38864228 0.07213042 0.054029293 0.2958452 0.6557478 0.3578131 0.5258607 -0.48176822
3 0.17205219 -0.35266662 -0.2715218 0.12167928 0.115080684 0.26358297 0.7136255 0.380459 0.4318655 -0.49411663
5 0.20166247 -0.35238913 -0.35008958 0.08573075 0.13252535 0.21858029 0.6485776 0.28768432 0.4810366 -0.47475454
6 0.19258898 -0.37482342 -0.26270884 0.16138396 0.10701312 0.2695428 0.67750895 0.40884674 0.47492337 -0.4391435
8 0.19650513 -0.4065457 -0.27909452 0.13317165 0.078904435 0.29120776 0.702649 0.39753187 0.50303143 -0.43603784
2 0.25001377 -0.34768778 -0.3456609 0.085552864 0.090879455 0.2603128 0.6852357 0.38011867 0.42875776 -0.4818214
1 0.15785065 -0.3768635 -0.28608036 0.055346414 0.12254258 0.21130493 0.6390648 0.38313055 0.5127415 -0.47004613
10 0.1956213 -0.32417795 -0.33684996 0.10783491 0.1263369 0.30415744 0.64720136 0.3394756 0.51281977 -0.48514682
9 0.17340024 -0.30559194 -0.3714947 0.08048903 0.0957853 0.27257967 0.6150817 0.3662464 0.53394973 -0.46020642
4 0.19489868 -0.30983812 -0.3118832 0.131041 0.13776468 0.2381506 0.6279171 0.42613629 0.50674784 -0.5019519
